digraph Tree {
node [shape=box] ;
0 [label="X[13] <= 1.5\nentropy = 3.824\nsamples = 615\nvalue = [18, 18, 19, 83, 39, 18, 18, 85, 19, 17, 15, 39\n20, 80, 81, 14, 11, 14, 7]"] ;
1 [label="X[14] <= 0.5\nentropy = 2.716\nsamples = 339\nvalue = [0, 0, 0, 0, 8, 0, 18, 85, 19, 17, 8, 0, 20\n80, 81, 0, 0, 0, 3]"] ;
0 -> 1 [labeldistance=2.5, labelangle=45, headlabel="True"] ;
2 [label="X[21] <= 1.5\nentropy = 1.5\nsamples = 44\nvalue = [0, 0, 0, 0, 0, 0, 0, 0, 19, 17, 8, 0, 0, 0\n0, 0, 0, 0, 0]"] ;
1 -> 2 ;
3 [label="(...)"] ;
2 -> 3 ;
10 [label="(...)"] ;
2 -> 10 ;
11 [label="X[28] <= 0.5\nentropy = 2.258\nsamples = 295\nvalue = [0, 0, 0, 0, 8, 0, 18, 85, 0, 0, 0, 0, 20, 80\n81, 0, 0, 0, 3]"] ;
1 -> 11 ;
12 [label="(...)"] ;
11 -> 12 ;
101 [label="(...)"] ;
11 -> 101 ;
110 [label="X[27] <= 1.5\nentropy = 3.155\nsamples = 276\nvalue = [18, 18, 19, 83, 31, 18, 0, 0, 0, 0, 7, 39, 0\n0, 0, 14, 11, 14, 4]"] ;
0 -> 110 [labeldistance=2.5, labelangle=-45, headlabel="False"] ;
111 [label="X[20] <= 1.0\nentropy = 2.643\nsamples = 145\nvalue = [18, 18, 0, 0, 31, 18, 0, 0, 0, 0, 7, 39, 0\n0, 0, 14, 0, 0, 0]"] ;
110 -> 111 ;
112 [label="(...)"] ;
111 -> 112 ;
121 [label="(...)"] ;
111 -> 121 ;
124 [label="X[26] <= 1.0\nentropy = 1.62\nsamples = 131\nvalue = [0, 0, 19, 83, 0, 0, 0, 0, 0, 0, 0, 0, 0, 0\n0, 0, 11, 14, 4]"] ;
110 -> 124 ;
125 [label="(...)"] ;
124 -> 125 ;
128 [label="(...)"] ;
124 -> 128 ;
}